Web.VueData.Learned.Confirmed = {"type":"LSTMTimeStep","options":{"inputSize":1,"hiddenLayers":[10],"outputSize":1,"learningRate":0.01,"decayRate":0.999,"smoothEps":1e-8,"regc":0.000001,"clipval":5},"hiddenLayers":[{"inputMatrix":{"rows":10,"columns":1,"weights":{"0":-0.3089633285999298,"1":-1.2819100618362427,"2":0.6246082782745361,"3":-1.2012192010879517,"4":0.740742564201355,"5":0.04329356551170349,"6":-1.3120875358581543,"7":0.2558729648590088,"8":-0.3280385732650757,"9":0.42935067415237427}},"inputHidden":{"rows":10,"columns":10,"weights":{"0":-0.2585834264755249,"1":-0.32351112365722656,"2":0.024820508435368538,"3":0.32777324318885803,"4":0.05981562286615372,"5":0.015886789187788963,"6":-0.3501974046230316,"7":-0.04315659776329994,"8":0.34975379705429077,"9":-0.03565393388271332,"10":-0.32226693630218506,"11":-0.11010413616895676,"12":-0.06679574400186539,"13":0.20930172502994537,"14":-0.08934416621923447,"15":0.07973223924636841,"16":-0.15708120167255402,"17":-0.023084957152605057,"18":0.21985682845115662,"19":0.021700041368603706,"20":0.5379698872566223,"21":0.47136059403419495,"22":0.10082650929689407,"23":-0.5749743580818176,"24":0.11949233710765839,"25":0.01040516048669815,"26":0.5218690037727356,"27":-0.0013164406409487128,"28":-0.5392783880233765,"29":0.011601902544498444,"30":-0.3313162922859192,"31":-0.10779087245464325,"32":0.02687719091773033,"33":0.187836691737175,"34":-0.054531730711460114,"35":0.1348056048154831,"36":-0.18315066397190094,"37":-0.035600606352090836,"38":0.3003444969654083,"39":-0.050661351531744,"40":0.6299694776535034,"41":0.462719589471817,"42":0.10908151417970657,"43":-0.585959255695343,"44":0.04463521018624306,"45":0.03542888164520264,"46":0.5225221514701843,"47":-0.050680264830589294,"48":-0.6062049269676208,"49":0.023827098309993744,"50":0.4591868817806244,"51":0.5863611698150635,"52":0.002111641922965646,"53":-0.5070611238479614,"54":-0.04668230190873146,"55":-0.07583895325660706,"56":0.5042449831962585,"57":-0.056771278381347656,"58":-0.4530135989189148,"59":-0.04202478751540184,"60":-0.2056223452091217,"61":-0.20696178078651428,"62":-0.004545575939118862,"63":0.10473392903804779,"64":-0.08775994181632996,"65":0.05980369821190834,"66":-0.15292607247829437,"67":-0.01253386028110981,"68":0.20913898944854736,"69":0.026912270113825798,"70":0.5108767151832581,"71":0.6229614019393921,"72":0.07192559540271759,"73":-0.5263761281967163,"74":0.019344789907336235,"75":0.020519936457276344,"76":0.5723945498466492,"77":0.007218359038233757,"78":-0.5997017621994019,"79":0.038404252380132675,"80":-0.3345206379890442,"81":-0.3012850284576416,"82":-0.04933542013168335,"83":0.2560267448425293,"84":-0.05876602604985237,"85":-0.03617372736334801,"86":-0.3259172737598419,"87":0.004652858711779118,"88":0.37504440546035767,"89":0.04388059303164482,"90":0.653300940990448,"91":0.5599255561828613,"92":0.018622133880853653,"93":-0.6503554582595825,"94":-0.026392435654997826,"95":0.07995381206274033,"96":0.5382002592086792,"97":0.06323898583650589,"98":-0.6519707441329956,"99":0.02107503078877926}},"inputBias":{"rows":10,"columns":1,"weights":{"0":-0.07016418874263763,"1":0.15922585129737854,"2":-0.4100090265274048,"3":0.020350266247987747,"4":-0.4230422377586365,"5":-0.2642632722854614,"6":0.08527124673128128,"7":-0.3692566752433777,"8":-0.0632857009768486,"9":-0.4216957092285156}},"forgetMatrix":{"rows":10,"columns":1,"weights":{"0":-0.31811782717704773,"1":-0.5668994188308716,"2":0.33892038464546204,"3":-0.5000870227813721,"4":0.3407396674156189,"5":0.08021252602338791,"6":-0.5381148457527161,"7":0.0409020334482193,"8":-0.40565726161003113,"9":0.1261332929134369}},"forgetHidden":{"rows":10,"columns":10,"weights":{"0":-0.0784212201833725,"1":-0.06990589946508408,"2":0.22795185446739197,"3":0.1365998089313507,"4":0.22065702080726624,"5":0.2247779369354248,"6":-0.18975462019443512,"7":0.22074568271636963,"8":0.16820375621318817,"9":-0.2031625509262085,"10":-0.09457060694694519,"11":-0.029132669791579247,"12":0.2270864099264145,"13":0.15889383852481842,"14":0.24985763430595398,"15":0.4224025011062622,"16":-0.01639203168451786,"17":0.21384575963020325,"18":0.11052697151899338,"19":-0.2636328339576721,"20":0.5577965974807739,"21":0.5139807462692261,"22":-0.030972011387348175,"23":-0.5959439873695374,"24":0.07978154718875885,"25":-0.07464846223592758,"26":0.4887230694293976,"27":0.029397863894701004,"28":-0.552070677280426,"29":0.08161851018667221,"30":-0.13209162652492523,"31":-0.15129327774047852,"32":0.22224298119544983,"33":0.23223058879375458,"34":0.21374262869358063,"35":0.3593257665634155,"36":-0.2024511843919754,"37":0.18073014914989471,"38":0.05867386236786842,"39":-0.18205825984477997,"40":0.5400920510292053,"41":0.49139514565467834,"42":-0.0021171937696635723,"43":-0.5770518183708191,"44":-0.037634994834661484,"45":-0.10241690278053284,"46":0.5580903887748718,"47":-0.0686272606253624,"48":-0.5815012454986572,"49":0.013588384725153446,"50":0.5582878589630127,"51":0.4011595547199249,"52":-0.12807226181030273,"53":-0.5346980690956116,"54":-0.08743124455213547,"55":-0.030508054420351982,"56":0.4731895923614502,"57":-0.0712214931845665,"58":-0.4719911515712738,"59":0.017012624070048332,"60":-0.12617093324661255,"61":-0.15998879075050354,"62":0.20839856564998627,"63":0.10648056119680405,"64":0.20325972139835358,"65":0.34905582666397095,"66":-0.051371607929468155,"67":0.23930753767490387,"68":0.1507197767496109,"69":-0.21555449068546295,"70":0.5262377262115479,"71":0.46088823676109314,"72":-0.09171031415462494,"73":-0.6243519186973572,"74":-0.030139025300741196,"75":-0.04685822129249573,"76":0.5219396352767944,"77":-0.03880712017416954,"78":-0.5458701848983765,"79":0.10263488441705704,"80":-0.08186656981706619,"81":-0.1305217295885086,"82":0.13193799555301666,"83":0.2120201736688614,"84":0.10031548887491226,"85":0.24647392332553864,"86":-0.13204102218151093,"87":0.19811704754829407,"88":0.10275382548570633,"89":-0.2117392122745514,"90":0.5121057629585266,"91":0.5844759345054626,"92":-0.06816181540489197,"93":-0.5217463374137878,"94":0.05928005278110504,"95":-0.05838712304830551,"96":0.5022825598716736,"97":-0.05682805925607681,"98":-0.45902732014656067,"99":0.04567963257431984}},"forgetBias":{"rows":10,"columns":1,"weights":{"0":0,"1":0,"2":0,"3":0,"4":0,"5":0,"6":0,"7":0,"8":0,"9":0}},"outputMatrix":{"rows":10,"columns":1,"weights":{"0":-0.4450681805610657,"1":-1.0680757761001587,"2":0.41588258743286133,"3":-0.8795387148857117,"4":0.6129471063613892,"5":0.08964379131793976,"6":-1.0192675590515137,"7":0.14825235307216644,"8":-0.45746180415153503,"9":0.3768501281738281}},"outputHidden":{"rows":10,"columns":10,"weights":{"0":-0.3141880929470062,"1":-0.2352435439825058,"2":-0.02475642040371895,"3":0.3269464075565338,"4":-0.00289519177749753,"5":0.04001779109239578,"6":-0.26130542159080505,"7":0.04534919187426567,"8":0.27676117420196533,"9":-0.07318708300590515,"10":-0.31264248490333557,"11":-0.15632857382297516,"12":0.02938147261738777,"13":0.20985858142375946,"14":-0.022752832621335983,"15":0.1721610575914383,"16":-0.17191004753112793,"17":-0.03261727839708328,"18":0.2521043121814728,"19":-0.07440569996833801,"20":0.64420086145401,"21":0.5859524011611938,"22":0.19970671832561493,"23":-0.6068549752235413,"24":0.14504829049110413,"25":0.07010236382484436,"26":0.5461792349815369,"27":0.07044339925050735,"28":-0.6188704967498779,"29":-0.08915340155363083,"30":-0.25868698954582214,"31":-0.3011734187602997,"32":-0.08323535323143005,"33":0.30824992060661316,"34":0.03768793120980263,"35":0.16084086894989014,"36":-0.15918155014514923,"37":0.04686106741428375,"38":0.24517270922660828,"39":0.03553369268774986,"40":0.5938649773597717,"41":0.5585729479789734,"42":0.19336725771427155,"43":-0.6349348425865173,"44":0.1283605694770813,"45":0.0756167322397232,"46":0.4923750162124634,"47":0.07375644147396088,"48":-0.6214765310287476,"49":-0.0818394348025322,"50":0.5445689558982849,"51":0.49088674783706665,"52":0.007936380803585052,"53":-0.532924473285675,"54":0.02475655823945999,"55":0.041580092161893845,"56":0.5108017325401306,"57":0.05547633022069931,"58":-0.5027720332145691,"59":-0.00893366802483797,"60":-0.2596953213214874,"61":-0.21230293810367584,"62":0.005970704834908247,"63":0.18654032051563263,"64":-0.012696824036538601,"65":0.12030942738056183,"66":-0.14115595817565918,"67":-0.03875274583697319,"68":0.18635712563991547,"69":-0.06326752156019211,"70":0.6365238428115845,"71":0.5639557242393494,"72":0.1252651810646057,"73":-0.670964241027832,"74":0.11298388987779617,"75":0.035297494381666183,"76":0.6524306535720825,"77":0.14221780002117157,"78":-0.6596012115478516,"79":-0.17075014114379883,"80":-0.2187277376651764,"81":-0.3057444989681244,"82":0.01517485547810793,"83":0.26668116450309753,"84":0.06575917452573776,"85":0.01857653260231018,"86":-0.32494720816612244,"87":0.054315052926540375,"88":0.28101858496665955,"89":0.034668583422899246,"90":0.6071149110794067,"91":0.6420292258262634,"92":0.11333901435136795,"93":-0.6230849623680115,"94":0.11023946851491928,"95":0.03669608011841774,"96":0.6471120119094849,"97":0.17440946400165558,"98":-0.6019995808601379,"99":-0.06947857141494751}},"outputBias":{"rows":10,"columns":1,"weights":{"0":-0.0666060522198677,"1":0.15523676574230194,"2":-0.4100106358528137,"3":0.02069793827831745,"4":-0.4230395257472992,"5":-0.2649286091327667,"6":0.08255428820848465,"7":-0.36975616216659546,"8":-0.060091376304626465,"9":-0.4218781292438507}},"cellActivationMatrix":{"rows":10,"columns":1,"weights":{"0":1.052470088005066,"1":0.2952774167060852,"2":1.532637119293213,"3":-0.36244308948516846,"4":1.625537395477295,"5":0.8114525079727173,"6":0.197313591837883,"7":1.3598523139953613,"8":-1.0804260969161987,"9":-1.46726655960083}},"cellActivationHidden":{"rows":10,"columns":10,"weights":{"0":-0.2863546311855316,"1":-0.4393199384212494,"2":-0.4500797390937805,"3":0.29324862360954285,"4":-0.3967891335487366,"5":-0.8683961629867554,"6":-0.4455006420612335,"7":-0.6426255702972412,"8":0.26500314474105835,"9":0.5183824300765991,"10":-0.3066352903842926,"11":-0.37633731961250305,"12":-0.37693020701408386,"13":0.24398459494113922,"14":-0.352038711309433,"15":-0.5599462389945984,"16":-0.2526891231536865,"17":-0.6167041659355164,"18":0.30185675621032715,"19":0.4546797573566437,"20":0.4403989315032959,"21":0.09556236118078232,"22":0.31500810384750366,"23":-0.23824526369571686,"24":0.30710726976394653,"25":0.07702700048685074,"26":0.21024030447006226,"27":0.19055147469043732,"28":-0.32988300919532776,"29":-0.14701154828071594,"30":0.29308629035949707,"31":0.3334284722805023,"32":0.4344315826892853,"33":-0.07935760170221329,"34":0.33628952503204346,"35":0.6936485767364502,"36":0.28450101613998413,"37":0.5644218921661377,"38":-0.24753914773464203,"39":-0.5193521976470947,"40":0.44848716259002686,"41":-0.036646611988544464,"42":0.2981417775154114,"43":-0.23335407674312592,"44":0.32072997093200684,"45":0.07685068994760513,"46":0.03851340338587761,"47":0.06987477093935013,"48":-0.3731682598590851,"49":-0.2849099934101105,"50":0.5622015595436096,"51":0.5425277352333069,"52":0.09657475352287292,"53":-0.4818642735481262,"54":0.13230933248996735,"55":0.15253126621246338,"56":0.5316744446754456,"57":0.10876034945249557,"58":-0.6857802867889404,"59":-0.1299000233411789,"60":-0.3224455416202545,"61":-0.3388533294200897,"62":-0.41487759351730347,"63":0.15913508832454681,"64":-0.39659035205841064,"65":-0.6387054324150085,"66":-0.2501995265483856,"67":-0.6021690368652344,"68":0.27052608132362366,"69":0.5471497774124146,"70":0.38669076561927795,"71":0.05564429238438606,"72":0.3408353626728058,"73":-0.33869093656539917,"74":0.26960673928260803,"75":0.04925653710961342,"76":0.12733440101146698,"77":0.03793984651565552,"78":-0.42697224020957947,"79":-0.23125234246253967,"80":0.23777438700199127,"81":0.44145944714546204,"82":0.528099536895752,"83":-0.32832199335098267,"84":0.45735302567481995,"85":0.7963492274284363,"86":0.47997575998306274,"87":0.6701182126998901,"88":-0.29454508423805237,"89":-0.5582733750343323,"90":-0.40930816531181335,"91":-0.04135717824101448,"92":-0.32209351658821106,"93":0.2043813318014145,"94":-0.24957400560379028,"95":-0.04964148625731468,"96":-0.14428047835826874,"97":-0.127717524766922,"98":0.37686586380004883,"99":0.18690191209316254}},"cellActivationBias":{"rows":10,"columns":1,"weights":{"0":-0.04887516796588898,"1":-0.5002363920211792,"2":-0.039492417126894,"3":0.33928871154785156,"4":-0.02850140444934368,"5":-0.19491277635097504,"6":-0.43936342000961304,"7":-0.19091981649398804,"8":0.11397632956504822,"9":0.11103595048189163}}}],"outputConnector":{"rows":1,"columns":10,"weights":{"0":0.2484210729598999,"1":0.07959108054637909,"2":0.7136212587356567,"3":-0.13966041803359985,"4":0.772708535194397,"5":0.38974127173423767,"6":0.07319475710391998,"7":0.6110455989837646,"8":-0.20656047761440277,"9":-0.6787198781967163}},"output":{"rows":1,"columns":1,"weights":{"0":0.09159863740205765}}}