Web.VueData.Learned.Deaths = {"type":"LSTMTimeStep","options":{"inputSize":1,"hiddenLayers":[10],"outputSize":1,"learningRate":0.01,"decayRate":0.999,"smoothEps":1e-8,"regc":0.000001,"clipval":5},"hiddenLayers":[{"inputMatrix":{"rows":10,"columns":1,"weights":{"0":0.9395160675048828,"1":-0.04815018177032471,"2":0.2648594081401825,"3":0.29646456241607666,"4":0.17004811763763428,"5":-0.4773508608341217,"6":-0.5512250661849976,"7":-0.6527361869812012,"8":0.10109589248895645,"9":-0.019373293966054916}},"inputHidden":{"rows":10,"columns":10,"weights":{"0":-0.813194215297699,"1":-0.0007657636888325214,"2":-0.26306599378585815,"3":-0.27334046363830566,"4":-0.34682273864746094,"5":0.040113482624292374,"6":-0.010147040709853172,"7":0.01748431660234928,"8":0.15392056107521057,"9":-0.012454339303076267,"10":0.12771475315093994,"11":0.31733229756355286,"12":0.2078401893377304,"13":0.1702677309513092,"14":0.2220483124256134,"15":-0.2427481859922409,"16":0.17862465977668762,"17":0.2437671273946762,"18":-0.05309480428695679,"19":-0.30530810356140137,"20":-0.28534388542175293,"21":-0.3258199989795685,"22":-0.08630145341157913,"23":-0.06922490149736404,"24":-0.029913922771811485,"25":0.23136314749717712,"26":-0.3093593716621399,"27":-0.2462182343006134,"28":0.13076229393482208,"29":0.3965317904949188,"30":-0.28951719403266907,"31":-0.32893049716949463,"32":-0.11018827557563782,"33":-0.01662827469408512,"34":-0.09436523914337158,"35":0.2660660743713379,"36":-0.22492918372154236,"37":-0.24176625907421112,"38":0.09532822668552399,"39":0.41753390431404114,"40":-0.26546579599380493,"41":-0.36120712757110596,"42":-0.09036435186862946,"43":-0.018986910581588745,"44":-0.029079856351017952,"45":0.2515832483768463,"46":-0.19594967365264893,"47":-0.2576395571231842,"48":0.08792797476053238,"49":0.21493156254291534,"50":0.456939697265625,"51":0.26732200384140015,"52":0.16629107296466827,"53":0.08744700253009796,"54":0.17277736961841583,"55":-0.21390728652477264,"56":0.26351800560951233,"57":0.2191624939441681,"58":-0.08512264490127563,"59":-0.18492229282855988,"60":0.46765369176864624,"61":0.26568394899368286,"62":0.15450337529182434,"63":0.13213768601417542,"64":0.28207725286483765,"65":-0.26910582184791565,"66":0.15138016641139984,"67":0.1891104131937027,"68":-0.1703062206506729,"69":-0.2474244236946106,"70":0.4584343135356903,"71":0.24673709273338318,"72":0.2150564044713974,"73":0.32683899998664856,"74":0.3223901689052582,"75":-0.1833585798740387,"76":0.2008024901151657,"77":0.1594441682100296,"78":-0.30556240677833557,"79":-0.18465961515903473,"80":-0.18382835388183594,"81":-0.3531860411167145,"82":-0.11859072744846344,"83":-0.1510731279850006,"84":-0.16463090479373932,"85":0.3549472391605377,"86":-0.2560962438583374,"87":-0.3476494550704956,"88":0.03981823846697807,"89":0.4724007546901703,"90":0.2591458559036255,"91":0.28814616799354553,"92":0.12353344261646271,"93":0.10782978683710098,"94":0.20837841928005219,"95":-0.2998996376991272,"96":0.23104572296142578,"97":0.19970665872097015,"98":-0.19779850542545319,"99":-0.22980645298957825}},"inputBias":{"rows":10,"columns":1,"weights":{"0":-0.47941893339157104,"1":-0.08420075476169586,"2":-0.44060543179512024,"3":-0.42048677802085876,"4":-0.5533580780029297,"5":-0.0395844541490078,"6":-0.03462471440434456,"7":-0.0338498055934906,"8":-0.4080755412578583,"9":0.11564642190933228}},"forgetMatrix":{"rows":10,"columns":1,"weights":{"0":1.0575881004333496,"1":-0.3150094747543335,"2":0.1290203183889389,"3":0.14298014342784882,"4":-0.05269283428788185,"5":-0.4092360734939575,"6":-0.40336015820503235,"7":-0.4039206802845001,"8":-0.04924669861793518,"9":-0.32121261954307556}},"forgetHidden":{"rows":10,"columns":10,"weights":{"0":-1.3544750213623047,"1":-0.1092316061258316,"2":-0.08998192101716995,"3":-0.06731338053941727,"4":-0.1991165578365326,"5":0.03135182708501816,"6":0.02118920534849167,"7":0.056678250432014465,"8":0.01868588849902153,"9":0.04570211097598076,"10":0.4717753827571869,"11":0.152086079120636,"12":0.42916905879974365,"13":0.40676188468933105,"14":0.43778863549232483,"15":-0.17871110141277313,"16":0.14576981961727142,"17":0.061546117067337036,"18":-0.4458554685115814,"19":-0.07639319449663162,"20":-0.2462114840745926,"21":-0.43423229455947876,"22":-0.17444582283496857,"23":-0.08023365586996078,"24":-0.21433760225772858,"25":0.40303024649620056,"26":-0.3729587495326996,"27":-0.36331620812416077,"28":0.17010876536369324,"29":0.5266516208648682,"30":-0.11132325977087021,"31":-0.4021572470664978,"32":-0.12760663032531738,"33":-0.09099824726581573,"34":-0.10643500834703445,"35":0.38539746403694153,"36":-0.3377780616283417,"37":-0.3777700960636139,"38":0.06342050433158875,"39":0.5312711596488953,"40":-0.18572723865509033,"41":-0.3101247251033783,"42":-0.11142240464687347,"43":-0.2153407335281372,"44":-0.19111034274101257,"45":0.28177201747894287,"46":-0.32558533549308777,"47":-0.23973825573921204,"48":0.15853944420814514,"49":0.27764806151390076,"50":0.46895480155944824,"51":0.17540065944194794,"52":0.3893575370311737,"53":0.46417030692100525,"54":0.48873576521873474,"55":-0.12701579928398132,"56":0.022299084812402725,"57":0.04426507279276848,"58":-0.4070289433002472,"59":-0.13046732544898987,"60":0.5830968618392944,"61":0.10800643265247345,"62":0.44906625151634216,"63":0.4280339181423187,"64":0.5813791155815125,"65":-0.13267727196216583,"66":0.12900622189044952,"67":0.04988133907318115,"68":-0.49797141551971436,"69":-0.09867295622825623,"70":0.49317705631256104,"71":0.06051027402281761,"72":0.5691041946411133,"73":0.5533924698829651,"74":0.5220683217048645,"75":-0.05305647850036621,"76":0.008894290775060654,"77":0.038599804043769836,"78":-0.5533861517906189,"79":-0.07552611827850342,"80":-0.17930974066257477,"81":-0.4816112220287323,"82":-0.18610386550426483,"83":-0.1775311827659607,"84":-0.15055148303508759,"85":0.3386105000972748,"86":-0.4159340262413025,"87":-0.39067381620407104,"88":0.15117932856082916,"89":0.5054330229759216,"90":0.5585198402404785,"91":0.13373470306396484,"92":0.44498372077941895,"93":0.4266817271709442,"94":0.4828011095523834,"95":-0.16224290430545807,"96":0.013478923588991165,"97":0.08225952088832855,"98":-0.4594908356666565,"99":-0.15254759788513184}},"forgetBias":{"rows":10,"columns":1,"weights":{"0":0,"1":0,"2":0,"3":0,"4":0,"5":0,"6":0,"7":0,"8":0,"9":0}},"outputMatrix":{"rows":10,"columns":1,"weights":{"0":1.0625327825546265,"1":-0.2230304628610611,"2":0.12492100149393082,"3":0.2633112668991089,"4":0.12781722843647003,"5":-0.4196656346321106,"6":-0.5629100203514099,"7":-0.5874191522598267,"8":0.09725998342037201,"9":-0.3049357831478119}},"outputHidden":{"rows":10,"columns":10,"weights":{"0":-1.0188922882080078,"1":-0.03615476191043854,"2":-0.10058201104402542,"3":-0.11030180752277374,"4":-0.34324848651885986,"5":0.02632252685725689,"6":0.03207787126302719,"7":0.06683046370744705,"8":0.14740467071533203,"9":-0.00926675833761692,"10":0.2081211358308792,"11":0.24833464622497559,"12":0.26234549283981323,"13":0.10229835659265518,"14":0.24606797099113464,"15":-0.31290939450263977,"16":0.28533750772476196,"17":0.18767912685871124,"18":-0.22630010545253754,"19":-0.3412519693374634,"20":-0.15190255641937256,"21":-0.3818816840648651,"22":-0.05213214457035065,"23":0.03208364546298981,"24":-0.0018309768056496978,"25":0.33892935514450073,"26":-0.275021493434906,"27":-0.3054870367050171,"28":0.006456021219491959,"29":0.4215259850025177,"30":-0.18522897362709045,"31":-0.3598029911518097,"32":-0.022101089358329773,"33":-0.13299688696861267,"34":-0.02886062301695347,"35":0.3020861744880676,"36":-0.28043919801712036,"37":-0.34245461225509644,"38":0.07677295058965683,"39":0.4647442698478699,"40":-0.12896764278411865,"41":-0.24871627986431122,"42":-0.11582361906766891,"43":-0.10272064805030823,"44":-0.07417066395282745,"45":0.3289242386817932,"46":-0.2156887948513031,"47":-0.26791873574256897,"48":0.04056579992175102,"49":0.3183206617832184,"50":0.36443108320236206,"51":0.20640641450881958,"52":0.11954483389854431,"53":0.22930918633937836,"54":0.2352960705757141,"55":-0.26385772228240967,"56":0.24709263443946838,"57":0.26532185077667236,"58":-0.22273841500282288,"59":-0.24652627110481262,"60":0.35789334774017334,"61":0.2904827296733856,"62":0.2367193102836609,"63":0.2771598696708679,"64":0.31530725955963135,"65":-0.22278232872486115,"66":0.29983022809028625,"67":0.19177557528018951,"68":-0.15903796255588531,"69":-0.1840227097272873,"70":0.48836150765419006,"71":0.19822342693805695,"72":0.2741774320602417,"73":0.2629510164260864,"74":0.3769257664680481,"75":-0.2989879548549652,"76":0.24157209694385529,"77":0.13543079793453217,"78":-0.32436349987983704,"79":-0.2504223585128784,"80":-0.17446964979171753,"81":-0.3554302155971527,"82":-0.08285333961248398,"83":-0.13687126338481903,"84":0.018179934471845627,"85":0.38942575454711914,"86":-0.28345051407814026,"87":-0.37060853838920593,"88":0.0781266987323761,"89":0.3759962320327759,"90":0.34328579902648926,"91":0.31458258628845215,"92":0.173556387424469,"93":0.16189685463905334,"94":0.29402658343315125,"95":-0.29431232810020447,"96":0.19865618646144867,"97":0.2423039674758911,"98":-0.2381194680929184,"99":-0.23943635821342468}},"outputBias":{"rows":10,"columns":1,"weights":{"0":-0.4889450669288635,"1":-0.08126964420080185,"2":-0.4396902918815613,"3":-0.42019641399383545,"4":-0.5506673455238342,"5":-0.035370029509067535,"6":-0.030239196494221687,"7":-0.030144495889544487,"8":-0.40799322724342346,"9":0.11269078403711319}},"cellActivationMatrix":{"rows":10,"columns":1,"weights":{"0":-1.456335186958313,"1":-0.4732934534549713,"2":1.180435061454773,"3":1.2975071668624878,"4":0.48197248578071594,"5":0.20671451091766357,"6":-0.12761449813842773,"7":-0.004491758067160845,"8":-1.314163088798523,"9":0.3222855031490326}},"cellActivationHidden":{"rows":10,"columns":10,"weights":{"0":0.12079744040966034,"1":-0.4708855450153351,"2":-0.2298215627670288,"3":-0.2968766689300537,"4":-0.305052787065506,"5":0.645523190498352,"6":-0.48847344517707825,"7":-0.4778243899345398,"8":0.4196102023124695,"9":0.4744269549846649,"10":1.0389031171798706,"11":-0.17382535338401794,"12":0.5043067336082458,"13":0.5204530954360962,"14":0.6941584348678589,"15":0.19627518951892853,"16":-0.3075264096260071,"17":-0.24742382764816284,"18":-0.5343434810638428,"19":0.3392435312271118,"20":-0.17926383018493652,"21":-0.751471996307373,"22":0.15482188761234283,"23":0.24344220757484436,"24":0.09785324335098267,"25":0.6803235411643982,"26":-0.5827691555023193,"27":-0.5077669024467468,"28":-0.2096491903066635,"29":0.7195653915405273,"30":-0.2894253432750702,"31":-0.6798058748245239,"32":0.2140541523694992,"33":0.3287484049797058,"34":0.08740822970867157,"35":0.765363872051239,"36":-0.6456252932548523,"37":-0.4685465395450592,"38":-0.18989422917366028,"39":0.6702005863189697,"40":0.08551422506570816,"41":-0.8003113269805908,"42":-0.0015192338032647967,"43":0.04035182297229767,"44":0.09451767057180405,"45":0.7988687753677368,"46":-0.757035493850708,"47":-0.704643726348877,"48":-0.08968130499124527,"49":0.8213278651237488,"50":-0.9572659134864807,"51":0.18671046197414398,"52":-0.6157429218292236,"53":-0.5643852353096008,"54":-0.7953442931175232,"55":-0.15522019565105438,"56":0.16422820091247559,"57":0.020967962220311165,"58":0.5492470264434814,"59":-0.31913140416145325,"60":0.9176174998283386,"61":-0.3438008725643158,"62":0.6092355847358704,"63":0.5003434419631958,"64":0.8741629123687744,"65":0.09897791594266891,"66":-0.13967683911323547,"67":-0.026405347511172295,"68":-0.5675327777862549,"69":0.28463244438171387,"70":0.9338831901550293,"71":-0.33685073256492615,"72":0.5844622254371643,"73":0.6418190598487854,"74":0.8948977589607239,"75":0.11023756861686707,"76":-0.09068983793258667,"77":0.02919100783765316,"78":-0.734135627746582,"79":0.3407689332962036,"80":0.2551310956478119,"81":0.732490062713623,"82":-0.32531049847602844,"83":-0.25865814089775085,"84":-0.1474502980709076,"85":-0.7416514158248901,"86":0.5932130813598633,"87":0.44865912199020386,"88":0.299579381942749,"89":-0.7471307516098022,"90":-0.9357007145881653,"91":0.1982380747795105,"92":-0.5776280164718628,"93":-0.6798960566520691,"94":-0.6938236951828003,"95":-0.2593139410018921,"96":0.39085108041763306,"97":0.3091868460178375,"98":0.6337511539459229,"99":-0.3633398115634918}},"cellActivationBias":{"rows":10,"columns":1,"weights":{"0":-0.036157894879579544,"1":-0.12603479623794556,"2":-0.08687398582696915,"3":-0.14366039633750916,"4":-0.04552885890007019,"5":-0.1537279337644577,"6":0.14668147265911102,"7":0.18810491263866425,"8":0.19391193985939026,"9":0.4737284481525421}}}],"outputConnector":{"rows":1,"columns":10,"weights":{"0":-0.4442651569843292,"1":-0.2792651653289795,"2":0.7392680644989014,"3":0.7868421673774719,"4":0.5143731236457825,"5":0.32183602452278137,"6":-0.3088582754135132,"7":-0.19445271790027618,"8":-0.8076266646385193,"9":0.2637764811515808}},"output":{"rows":1,"columns":1,"weights":{"0":0.04400692507624626}}}