Web.VueData.Learned.Recovered = {"type":"LSTMTimeStep","options":{"inputSize":1,"hiddenLayers":[10],"outputSize":1,"learningRate":0.01,"decayRate":0.999,"smoothEps":1e-8,"regc":0.000001,"clipval":5},"hiddenLayers":[{"inputMatrix":{"rows":10,"columns":1,"weights":{"0":-0.12262865155935287,"1":-0.7945574522018433,"2":1.060662031173706,"3":0.6231309771537781,"4":-0.8276382088661194,"5":0.12202326953411102,"6":-0.7372625470161438,"7":0.584114134311676,"8":1.2443230152130127,"9":0.19594219326972961}},"inputHidden":{"rows":10,"columns":10,"weights":{"0":0.22511480748653412,"1":0.6331614851951599,"2":0.9629438519477844,"3":0.721258819103241,"4":-0.5332967042922974,"5":-0.2518986165523529,"6":0.5842410326004028,"7":-0.5887898802757263,"8":-0.9138116240501404,"9":-0.555834949016571,"10":-0.18390926718711853,"11":-0.32574257254600525,"12":0.16560885310173035,"13":-0.19881966710090637,"14":0.18374444544315338,"15":0.2682398557662964,"16":-0.4455544650554657,"17":0.1630622148513794,"18":-0.08409106731414795,"19":-0.28598281741142273,"20":-0.11647980660200119,"21":0.6745384335517883,"22":0.015544972382485867,"23":-0.2490910142660141,"24":-0.5785760879516602,"25":0.04556236416101456,"26":0.542704701423645,"27":0.18989267945289612,"28":-0.09601366519927979,"29":-0.7800123691558838,"30":0.06538576632738113,"31":0.4728124141693115,"32":0.3480495512485504,"33":0.11481621116399765,"34":-0.40529879927635193,"35":-0.10448022931814194,"36":0.4386419951915741,"37":-0.09638989716768265,"38":-0.40673068165779114,"39":-0.49339762330055237,"40":-0.21653355658054352,"41":-0.1467951536178589,"42":0.26252904534339905,"43":-0.34293001890182495,"44":0.06056768447160721,"45":0.4158582389354706,"46":-0.4351734220981598,"47":0.3682044446468353,"48":-0.05075237900018692,"49":-0.29111066460609436,"50":-0.3053395748138428,"51":-0.07091417163610458,"52":0.6347737312316895,"53":0.30490073561668396,"54":0.11604887247085571,"55":-0.44007059931755066,"56":0.13855881989002228,"57":-0.26588866114616394,"58":-0.6240965127944946,"59":0.8624365925788879,"60":-0.03142431005835533,"61":-0.5343555808067322,"62":0.13358592987060547,"63":0.14147824048995972,"64":0.40864649415016174,"65":-0.04484758898615837,"66":-0.5194833874702454,"67":-0.12247959524393082,"68":-0.2571953237056732,"69":-0.07941195368766785,"70":-0.15232263505458832,"71":0.39576101303100586,"72":0.28058215975761414,"73":0.1430082470178604,"74":-0.3309880197048187,"75":-0.12040217965841293,"76":0.5835121273994446,"77":-0.15380533039569855,"78":-0.3726867735385895,"79":0.016942763701081276,"80":0.2085423618555069,"81":0.4076438546180725,"82":0.10308901220560074,"83":0.25573790073394775,"84":-0.47886189818382263,"85":-0.2107326090335846,"86":0.2049475461244583,"87":-0.22027204930782318,"88":0.09846727550029755,"89":-0.17463897168636322,"90":0.6568663120269775,"91":-0.055645111948251724,"92":1.2288627624511719,"93":1.0047303438186646,"94":0.04755512252449989,"95":-1.1119349002838135,"96":0.021639611572027206,"97":-0.8918346166610718,"98":-0.8631680011749268,"99":0.6521297097206116}},"inputBias":{"rows":10,"columns":1,"weights":{"0":-0.25434181094169617,"1":-0.2094372659921646,"2":-0.2956426441669464,"3":-0.24101364612579346,"4":-0.17857347428798676,"5":-0.36840808391571045,"6":-0.38940566778182983,"7":-0.27056440711021423,"8":-0.22284193336963654,"9":-0.41890713572502136}},"forgetMatrix":{"rows":10,"columns":1,"weights":{"0":0.10714472830295563,"1":-0.6273096203804016,"2":1.1141856908798218,"3":0.2947391867637634,"4":-0.6069378852844238,"5":0.015407420694828033,"6":-0.6045117974281311,"7":0.24735014140605927,"8":1.0497510433197021,"9":0.24939225614070892}},"forgetHidden":{"rows":10,"columns":10,"weights":{"0":0.09433674067258835,"1":0.2750961482524872,"2":0.5755558609962463,"3":0.34006789326667786,"4":-0.12195944786071777,"5":-0.017211629077792168,"6":0.2152511328458786,"7":-0.23909160494804382,"8":-0.6021754145622253,"9":-0.1460278183221817,"10":-0.26869457960128784,"11":-0.3502741754055023,"12":0.27143093943595886,"13":-0.2706494629383087,"14":0.20972703397274017,"15":0.24116234481334686,"16":-0.42704951763153076,"17":0.19611990451812744,"18":-0.3237098753452301,"19":-0.37657272815704346,"20":-0.07601649314165115,"21":0.5749543309211731,"22":-0.054008807986974716,"23":-0.19776879251003265,"24":-0.5644742250442505,"25":0.08658730238676071,"26":0.36417239904403687,"27":0.25727012753486633,"28":0.2355969101190567,"29":-0.5045920014381409,"30":-0.09506194293498993,"31":0.3008384704589844,"32":0.32519271969795227,"33":0.24147918820381165,"34":-0.2103412002325058,"35":-0.21968577802181244,"36":0.3473990559577942,"37":-0.1754673570394516,"38":-0.4152289032936096,"39":-0.13696596026420593,"40":-0.36554858088493347,"41":-0.19728733599185944,"42":0.32225364446640015,"43":-0.3817647099494934,"44":0.1701664924621582,"45":0.2942998707294464,"46":-0.29785916209220886,"47":0.42397773265838623,"48":-0.2730812132358551,"49":-0.32750582695007324,"50":-0.09779160469770432,"51":-0.13717156648635864,"52":0.44299203157424927,"53":0.4601691663265228,"54":0.032625336199998856,"55":-0.40098536014556885,"56":0.07484598457813263,"57":-0.3856484889984131,"58":-0.5716495513916016,"59":0.21001029014587402,"60":-0.15566301345825195,"61":-0.3961298167705536,"62":0.2240716516971588,"63":-0.04185573756694794,"64":0.30073049664497375,"65":0.04343024641275406,"66":-0.3430192768573761,"67":0.09372996538877487,"68":-0.1503169983625412,"69":-0.18915396928787231,"70":-0.14309711754322052,"71":0.2882162630558014,"72":0.3256274163722992,"73":0.2905937731266022,"74":-0.23668423295021057,"75":-0.29631736874580383,"76":0.32751011848449707,"77":-0.2604442238807678,"78":-0.4574984014034271,"79":0.044251929968595505,"80":0.15579845011234283,"81":0.5486747026443481,"82":-0.2060842514038086,"83":0.11150588095188141,"84":-0.6020859479904175,"85":-0.10134543478488922,"86":0.21283882856369019,"87":-0.11104565858840942,"88":0.29694297909736633,"89":-0.38187408447265625,"90":-0.0060193766839802265,"91":-0.07929347455501556,"92":0.6148856282234192,"93":0.5039395093917847,"94":0.06873022019863129,"95":-0.4668535888195038,"96":-0.00961548462510109,"97":-0.42798301577568054,"98":-0.5330286622047424,"99":0.22707568109035492}},"forgetBias":{"rows":10,"columns":1,"weights":{"0":0,"1":0,"2":0,"3":0,"4":0,"5":0,"6":0,"7":0,"8":0,"9":0}},"outputMatrix":{"rows":10,"columns":1,"weights":{"0":0.03451864793896675,"1":-0.7865585684776306,"2":1.268262505531311,"3":0.6242792010307312,"4":-0.9220142364501953,"5":0.06247040256857872,"6":-0.7269428372383118,"7":0.5100956559181213,"8":1.3697720766067505,"9":0.2076457291841507}},"outputHidden":{"rows":10,"columns":10,"weights":{"0":0.1866091936826706,"1":0.6153078675270081,"2":0.8937156200408936,"3":0.7131786346435547,"4":-0.47617971897125244,"5":-0.2782745957374573,"6":0.6321133971214294,"7":-0.4472256302833557,"8":-0.8523105382919312,"9":-0.5629814863204956,"10":-0.11403023451566696,"11":-0.23763464391231537,"12":0.12442952394485474,"13":-0.025757471099495888,"14":0.11508992314338684,"15":0.2166139781475067,"16":-0.5735363364219666,"17":0.11566498130559921,"18":-0.10351261496543884,"19":-0.13374914228916168,"20":-0.15573503077030182,"21":0.6357830762863159,"22":0.0039274306036531925,"23":-0.31986570358276367,"24":-0.5884500741958618,"25":0.1999848186969757,"26":0.6244542002677917,"27":0.3967512249946594,"28":0.09128569811582565,"29":-0.4439148008823395,"30":0.00011147949408041313,"31":0.4245867133140564,"32":0.4199533760547638,"33":0.11906170099973679,"34":-0.47364890575408936,"35":-0.12893354892730713,"36":0.3513145446777344,"37":-0.07938707619905472,"38":-0.41433170437812805,"39":-0.32101526856422424,"40":-0.173289954662323,"41":-0.16356733441352844,"42":0.21202686429023743,"43":-0.25388574600219727,"44":0.15405160188674927,"45":0.345051646232605,"46":-0.4893926680088043,"47":0.19988399744033813,"48":-0.1356668323278427,"49":-0.34727489948272705,"50":-0.41629672050476074,"51":-0.06490013003349304,"52":0.5656709671020508,"53":0.2031794786453247,"54":0.05951160565018654,"55":-0.4156615436077118,"56":0.2035759538412094,"57":-0.33528339862823486,"58":-0.6138891577720642,"59":0.8278403878211975,"60":-0.045619525015354156,"61":-0.5885507464408875,"62":0.20861069858074188,"63":0.1703275740146637,"64":0.47823143005371094,"65":0.012715645134449005,"66":-0.5370784401893616,"67":-0.1676373928785324,"68":-0.22387529909610748,"69":0.06766555458307266,"70":-0.24146950244903564,"71":0.5585336089134216,"72":0.30931127071380615,"73":0.15143010020256042,"74":-0.3516390323638916,"75":-0.17631670832633972,"76":0.48354771733283997,"77":-0.06329429149627686,"78":-0.35266679525375366,"79":0.03353461995720863,"80":0.2393019050359726,"81":0.4729401767253876,"82":-0.1883828490972519,"83":0.15191300213336945,"84":-0.616922914981842,"85":-0.06358293443918228,"86":0.24865932762622833,"87":-0.06215210631489754,"88":0.24141821265220642,"89":-0.3797248601913452,"90":0.5587407946586609,"91":-0.06264843046665192,"92":1.2562930583953857,"93":0.9471184611320496,"94":-0.06414025276899338,"95":-1.1188161373138428,"96":-0.07371790707111359,"97":-0.8184368014335632,"98":-0.84991055727005,"99":0.5974042415618896}},"outputBias":{"rows":10,"columns":1,"weights":{"0":-0.25530484318733215,"1":-0.209146186709404,"2":-0.29621046781539917,"3":-0.24172665178775787,"4":-0.17768098413944244,"5":-0.3691786825656891,"6":-0.39112570881843567,"7":-0.27115052938461304,"8":-0.21930044889450073,"9":-0.41954371333122253}},"cellActivationMatrix":{"rows":10,"columns":1,"weights":{"0":-0.7367708683013916,"1":-0.3189966380596161,"2":-0.7186588644981384,"3":-1.4827799797058105,"4":0.055854156613349915,"5":-0.3405519723892212,"6":-0.2901374399662018,"7":0.9584159255027771,"8":1.1720527410507202,"9":0.9010338187217712}},"cellActivationHidden":{"rows":10,"columns":10,"weights":{"0":-0.45532718300819397,"1":1.3889235258102417,"2":0.5372283458709717,"3":-0.2732154130935669,"4":-1.032031536102295,"5":0.8100516200065613,"6":1.6776702404022217,"7":0.38159239292144775,"8":-0.9050351977348328,"9":-0.8206070065498352,"10":-0.7303142547607422,"11":-0.20577380061149597,"12":0.6826997995376587,"13":-0.8863214254379272,"14":0.04174118861556053,"15":0.7511335611343384,"16":-0.17259438335895538,"17":0.8828914761543274,"18":-0.6986313462257385,"19":-0.755046010017395,"20":0.387577086687088,"21":-0.43552693724632263,"22":0.08870574086904526,"23":0.06680028140544891,"24":0.4977805018424988,"25":0.1880107969045639,"26":-0.14379554986953735,"27":-0.028328794986009598,"28":-0.5549787282943726,"29":-0.3004470765590668,"30":-0.2507641017436981,"31":1.2960939407348633,"32":0.681869626045227,"33":-0.2799665331840515,"34":-0.8672841191291809,"35":0.9985859990119934,"36":1.2389110326766968,"37":0.4989267587661743,"38":-0.8420528173446655,"39":-1.3272546529769897,"40":0.7372305989265442,"41":0.18257121741771698,"42":-0.8143145442008972,"43":0.7754484415054321,"44":-0.16317732632160187,"45":-0.5521017909049988,"46":0.17754022777080536,"47":-0.7630669474601746,"48":0.7618287801742554,"49":0.6922417283058167,"50":-0.08678389340639114,"51":0.5229387283325195,"52":-0.5153111219406128,"53":0.0950784683227539,"54":-0.11071406304836273,"55":0.2666757106781006,"56":0.6739712357521057,"57":-0.1478247493505478,"58":0.5060257911682129,"59":-0.28117623925209045,"60":-0.9583162665367126,"61":0.05899180844426155,"62":0.5511695146560669,"63":-1.0481942892074585,"64":-0.08776197582483292,"65":1.090726375579834,"66":-0.044849980622529984,"67":1.0670945644378662,"68":-0.648202657699585,"69":-1.0218911170959473,"70":0.199025496840477,"71":-1.0189061164855957,"72":-0.393898069858551,"73":0.2057056576013565,"74":0.6779357194900513,"75":-0.6856039762496948,"76":-1.5841667652130127,"77":-0.4088118076324463,"78":0.20474062860012054,"79":0.5690945386886597,"80":-0.23058316111564636,"81":0.011989693157374859,"82":-0.14287209510803223,"83":-0.18058374524116516,"84":-0.36312028765678406,"85":-0.829736053943634,"86":-0.20547565817832947,"87":-0.03263970464468002,"88":0.8026580214500427,"89":1.1617518663406372,"90":0.03527604416012764,"91":-0.7540934681892395,"92":0.9584493637084961,"93":0.09188435971736908,"94":0.20977923274040222,"95":-0.9091784358024597,"96":-1.5378891229629517,"97":-0.19266201555728912,"98":1.218025803565979,"99":0.7790454626083374}},"cellActivationBias":{"rows":10,"columns":1,"weights":{"0":0.12890227138996124,"1":-0.004098297096788883,"2":-0.016133572906255722,"3":0.18128684163093567,"4":0.029842587187886238,"5":-0.03559926524758339,"6":0.024205246940255165,"7":-0.1404445469379425,"8":-0.058359190821647644,"9":-0.030546044930815697}}}],"outputConnector":{"rows":1,"columns":10,"weights":{"0":0.06733077764511108,"1":-0.3564062714576721,"2":-0.5416578650474548,"3":-0.2693400979042053,"4":0.2905070185661316,"5":-0.33554157614707947,"6":-0.12486419081687927,"7":0.13920162618160248,"8":0.9110020995140076,"9":0.36852267384529114}},"output":{"rows":1,"columns":1,"weights":{"0":0.018475264310836792}}}