Web.VueData.Learned.Confirmed = {"type":"LSTMTimeStep","options":{"inputSize":1,"hiddenLayers":[10],"outputSize":1,"learningRate":0.01,"decayRate":0.999,"smoothEps":1e-8,"regc":0.000001,"clipval":5},"hiddenLayers":[{"inputMatrix":{"rows":10,"columns":1,"weights":{"0":0.31401801109313965,"1":0.5266638398170471,"2":-0.05085300654172897,"3":-0.8256473541259766,"4":0.33531510829925537,"5":-0.5863335132598877,"6":0.27788040041923523,"7":-0.7744569778442383,"8":-0.2290828377008438,"9":0.2609533667564392}},"inputHidden":{"rows":10,"columns":10,"weights":{"0":-0.4584476053714752,"1":-0.003122765338048339,"2":-0.08347347378730774,"3":0.15263207256793976,"4":-0.5938703417778015,"5":-0.007516654673963785,"6":0.6217564344406128,"7":0.09020652621984482,"8":-0.05801975727081299,"9":0.5624339580535889,"10":0.4903315305709839,"11":0.26770395040512085,"12":0.1980305165052414,"13":-0.07054437696933746,"14":0.5011097192764282,"15":-0.07545876502990723,"16":-0.6108137369155884,"17":-0.016493819653987885,"18":0.2630790174007416,"19":-0.595532238483429,"20":0.6100907325744629,"21":0.312582403421402,"22":0.24531546235084534,"23":0.015509925782680511,"24":0.6293979287147522,"25":-0.12599970400333405,"26":-0.6862912178039551,"27":-0.011585074476897717,"28":0.25631850957870483,"29":-0.664334774017334,"30":0.49398452043533325,"31":0.5320065021514893,"32":0.4316728115081787,"33":0.6924680471420288,"34":0.544189453125,"35":-0.3314943015575409,"36":-0.5003862977027893,"37":0.6013215780258179,"38":0.3274940848350525,"39":-0.43244650959968567,"40":-0.49219629168510437,"41":0.030316496267914772,"42":0.039145857095718384,"43":0.07800719887018204,"44":-0.6174213886260986,"45":0.07609564810991287,"46":0.6511124968528748,"47":0.1323218047618866,"48":-0.018834535032510757,"49":0.6001554727554321,"50":0.5531370043754578,"51":0.5056254863739014,"52":0.544746458530426,"53":0.07160667330026627,"54":0.7058966755867004,"55":-0.08668269962072372,"56":-0.5370661616325378,"57":0.09807391464710236,"58":0.37559160590171814,"59":-0.6163289546966553,"60":-0.6007251143455505,"61":-0.051765669137239456,"62":-0.07538322359323502,"63":0.22513419389724731,"64":-0.29984286427497864,"65":-0.04653783515095711,"66":0.441361665725708,"67":0.10893777757883072,"68":0.007878333330154419,"69":0.27246296405792236,"70":0.5352120399475098,"71":0.5333179831504822,"72":0.383454829454422,"73":0.5661962628364563,"74":0.6680702567100525,"75":-0.3554602265357971,"76":-0.5227437615394592,"77":0.5023748278617859,"78":0.3787696063518524,"79":-0.5322259068489075,"80":0.5772754549980164,"81":0.28759661316871643,"82":0.2721922695636749,"83":-0.03795775771141052,"84":0.6705131530761719,"85":-0.1579977571964264,"86":-0.599472165107727,"87":-0.08474642783403397,"88":0.27813419699668884,"89":-0.598903238773346,"90":-0.7330159544944763,"91":-0.03540434688329697,"92":-0.02656400203704834,"93":0.10085450112819672,"94":-0.406065970659256,"95":0.06542456150054932,"96":0.6538767218589783,"97":0.16707631945610046,"98":-0.05718352273106575,"99":0.2903314232826233}},"inputBias":{"rows":10,"columns":1,"weights":{"0":-0.32710540294647217,"1":-0.12977848947048187,"2":-0.1326296478509903,"3":-0.2819897532463074,"4":-0.3059990406036377,"5":-0.21153083443641663,"6":-0.30739960074424744,"7":-0.2676108777523041,"8":-0.15527884662151337,"9":-0.3070926070213318}},"forgetMatrix":{"rows":10,"columns":1,"weights":{"0":0.10184793174266815,"1":0.10608842223882675,"2":-0.08037000149488449,"3":-0.6089383959770203,"4":0.23187367618083954,"5":-0.18005171418190002,"6":0.09587322920560837,"7":-0.6699630618095398,"8":-0.06029742583632469,"9":0.14315414428710938}},"forgetHidden":{"rows":10,"columns":10,"weights":{"0":-0.027507884427905083,"1":0.10278347879648209,"2":0.05512414127588272,"3":0.2925412058830261,"4":-0.08906713873147964,"5":-0.05960358306765556,"6":0.12469089776277542,"7":0.2535834014415741,"8":-0.022137966006994247,"9":0.05911538749933243,"10":0.5252084136009216,"11":0.0791999101638794,"12":0.14329038560390472,"13":-0.042048025876283646,"14":0.6829430460929871,"15":-0.01988176256418228,"16":-0.6245293617248535,"17":-0.09916824102401733,"18":0.15963436663150787,"19":-0.5192211270332336,"20":0.674357533454895,"21":0.13183052837848663,"22":0.2329629808664322,"23":-0.04319321736693382,"24":0.5802072286605835,"25":-0.16282634437084198,"26":-0.5873238444328308,"27":-0.08810225129127502,"28":0.16147315502166748,"29":-0.6899980902671814,"30":0.2040107399225235,"31":0.267198771238327,"32":0.20794269442558289,"33":0.27550846338272095,"34":0.3120376169681549,"35":-0.15988540649414062,"36":-0.13926725089550018,"37":0.3044074475765228,"38":0.16947013139724731,"39":-0.2754609286785126,"40":-0.05212874338030815,"41":0.0013378426665440202,"42":0.11413299292325974,"43":0.33956262469291687,"44":-0.006558014079928398,"45":-0.06459031254053116,"46":0.010137596167623997,"47":0.2574767768383026,"48":-0.036013081669807434,"49":0.0015097125433385372,"50":0.2817818820476532,"51":0.29600805044174194,"52":0.33395910263061523,"53":0.08374818414449692,"54":0.23183679580688477,"55":-0.04898225888609886,"56":-0.22889481484889984,"57":0.09995805472135544,"58":0.24683575332164764,"59":-0.200877383351326,"60":0.1514481157064438,"61":0.0783250629901886,"62":0.092912457883358,"63":0.3754670023918152,"64":0.10183951258659363,"65":-0.18752862513065338,"66":-0.05717267841100693,"67":0.2944328188896179,"68":0.12829828262329102,"69":-0.15051372349262238,"70":0.22030112147331238,"71":0.27538803219795227,"72":0.21981650590896606,"73":0.239820197224617,"74":0.2423584908246994,"75":-0.25409600138664246,"76":-0.12646180391311646,"77":0.33208757638931274,"78":0.20235909521579742,"79":-0.16476503014564514,"80":0.5188873410224915,"81":0.27777713537216187,"82":0.30228546261787415,"83":-0.1117810606956482,"84":0.6293628811836243,"85":-0.11717244237661362,"86":-0.5184416174888611,"87":-0.19880859553813934,"88":0.21427121758460999,"89":-0.4448804557323456,"90":0.10837521404027939,"91":0.11134853214025497,"92":0.1093364953994751,"93":0.30670902132987976,"94":0.13278350234031677,"95":-0.12117552012205124,"96":-0.05469737574458122,"97":0.3166709244251251,"98":0.04568183422088623,"99":-0.1630919724702835}},"forgetBias":{"rows":10,"columns":1,"weights":{"0":0,"1":0,"2":0,"3":0,"4":0,"5":0,"6":0,"7":0,"8":0,"9":0}},"outputMatrix":{"rows":10,"columns":1,"weights":{"0":0.4074123799800873,"1":0.4325774610042572,"2":-0.08536847680807114,"3":-0.8609206676483154,"4":0.5647037029266357,"5":-0.505489706993103,"6":0.3694901764392853,"7":-0.7900095582008362,"8":-0.15463662147521973,"9":0.39600834250450134}},"outputHidden":{"rows":10,"columns":10,"weights":{"0":-0.35900169610977173,"1":-0.019738702103495598,"2":-0.09194742143154144,"3":0.203608438372612,"4":-0.2639699876308441,"5":-0.041390545666217804,"6":0.18254192173480988,"7":0.19267471134662628,"8":-0.11236526817083359,"9":0.18387645483016968,"10":0.6340148448944092,"11":0.1745987981557846,"12":0.33264440298080444,"13":-0.04333294555544853,"14":0.5931980013847351,"15":-0.2546279728412628,"16":-0.6406024098396301,"17":-0.031616196036338806,"18":0.21738716959953308,"19":-0.7038284540176392,"20":0.7657929062843323,"21":0.256031334400177,"22":0.22092406451702118,"23":-0.04165869951248169,"24":0.7009143829345703,"25":-0.21141935884952545,"26":-0.6562760472297668,"27":-0.0859825387597084,"28":0.22759436070919037,"29":-0.6664673089981079,"30":0.5339111089706421,"31":0.4680132567882538,"32":0.4779893755912781,"33":0.663744330406189,"34":0.44770169258117676,"35":-0.4136144816875458,"36":-0.4599449038505554,"37":0.6551719903945923,"38":0.5205464959144592,"39":-0.3981507420539856,"40":-0.21910686790943146,"41":-0.11945535242557526,"42":-0.11022597551345825,"43":0.19947676360607147,"44":-0.2984698414802551,"45":0.06322646886110306,"46":0.2492038458585739,"47":0.10904868692159653,"48":0.0008976939716376364,"49":0.19580034911632538,"50":0.6884607672691345,"51":0.5773852467536926,"52":0.5492449402809143,"53":0.22059191763401031,"54":0.6605064868927002,"55":-0.14402826130390167,"56":-0.5818272233009338,"57":0.1244073286652565,"58":0.39668038487434387,"59":-0.6476154327392578,"60":-0.16501113772392273,"61":-0.035539660602808,"62":-0.0549524649977684,"63":0.23640702664852142,"64":-0.1754709780216217,"65":0.053125664591789246,"66":0.208598330616951,"67":0.14358951151371002,"68":-0.08912570774555206,"69":0.19299723207950592,"70":0.4853558838367462,"71":0.5238596796989441,"72":0.40040892362594604,"73":0.6868535876274109,"74":0.5945245027542114,"75":-0.34304291009902954,"76":-0.4573518633842468,"77":0.6159026622772217,"78":0.3825071454048157,"79":-0.5941416025161743,"80":0.674441397190094,"81":0.32849881052970886,"82":0.31980299949645996,"83":-0.027137430384755135,"84":0.7326413989067078,"85":-0.17626608908176422,"86":-0.6712048053741455,"87":0.013744792900979519,"88":0.3019198179244995,"89":-0.643185555934906,"90":-0.09333820641040802,"91":-0.1538659632205963,"92":-0.11041217297315598,"93":0.3168383538722992,"94":-0.18711110949516296,"95":0.10534162819385529,"96":0.06777901947498322,"97":0.19240190088748932,"98":-0.08983215689659119,"99":0.04964787885546684}},"outputBias":{"rows":10,"columns":1,"weights":{"0":-0.3274499773979187,"1":-0.12599384784698486,"2":-0.12929180264472961,"3":-0.28418296575546265,"4":-0.306510865688324,"5":-0.21228335797786713,"6":-0.3078154921531677,"7":-0.2697264552116394,"8":-0.1530158668756485,"9":-0.3074924945831299}},"cellActivationMatrix":{"rows":10,"columns":1,"weights":{"0":-1.30767023563385,"1":-0.9881683588027954,"2":-0.8340034484863281,"3":-0.4817664325237274,"4":-1.3677023649215698,"5":0.5349645018577576,"6":1.229154109954834,"7":-0.49407196044921875,"8":-0.6614118218421936,"9":1.2735987901687622}},"cellActivationHidden":{"rows":10,"columns":10,"weights":{"0":0.22962677478790283,"1":0.672732412815094,"2":0.7046468257904053,"3":0.38372743129730225,"4":0.20822100341320038,"5":-0.5659812688827515,"6":-0.19727377593517303,"7":0.38663017749786377,"8":0.7033835053443909,"9":-0.2028631567955017,"10":-0.42953503131866455,"11":-0.2444373220205307,"12":-0.17841866612434387,"13":-0.28759312629699707,"14":-0.39878931641578674,"15":0.028841545805335045,"16":0.3689090311527252,"17":-0.3614059388637543,"18":-0.1451839804649353,"19":0.27369293570518494,"20":-0.3518848121166229,"21":-0.22087694704532623,"22":-0.2851123511791229,"23":-0.22696825861930847,"24":-0.3973067104816437,"25":0.1368923783302307,"26":0.33519917726516724,"27":-0.32127997279167175,"28":-0.29744789004325867,"29":0.36851149797439575,"30":0.23167869448661804,"31":-0.6541930437088013,"32":-0.6831161379814148,"33":-0.8630656003952026,"34":0.3622031509876251,"35":0.681148111820221,"36":-0.30189964175224304,"37":-0.8389711380004883,"38":-0.68452388048172,"39":-0.32998767495155334,"40":0.16162462532520294,"41":0.7435470223426819,"42":0.6421395540237427,"43":0.40401822328567505,"44":0.16301076114177704,"45":-0.5797211527824402,"46":-0.19154293835163116,"47":0.3702657222747803,"48":0.6907519698143005,"49":-0.133196622133255,"50":0.29720041155815125,"51":0.5330532789230347,"52":0.3824675977230072,"53":0.37220296263694763,"54":0.232676163315773,"55":-0.3262810707092285,"56":-0.07197698205709457,"57":0.48099568486213684,"58":0.4909808933734894,"59":-0.0933365672826767,"60":-0.07118269801139832,"61":-0.7015143632888794,"62":-0.6265299320220947,"63":-0.4535976052284241,"64":0.035686347633600235,"65":0.6407108306884766,"66":0.016021093353629112,"67":-0.4904104471206665,"68":-0.7075769305229187,"69":0.009580574929714203,"70":0.1757870316505432,"71":-0.539725661277771,"72":-0.6511304378509521,"73":-0.726860761642456,"74":0.14158788323402405,"75":0.5473917126655579,"76":-0.29395219683647156,"77":-0.8281446099281311,"78":-0.683691143989563,"79":-0.2835802435874939,"80":-0.3611117899417877,"81":-0.28461891412734985,"82":-0.19077739119529724,"83":-0.27185875177383423,"84":-0.40882396697998047,"85":0.11059538275003433,"86":0.32921454310417175,"87":-0.2795150578022003,"88":-0.3504222333431244,"89":0.2663370668888092,"90":0.007174141239374876,"91":-0.7928767204284668,"92":-0.703929603099823,"93":-0.5159856081008911,"94":-0.043722063302993774,"95":0.7038701772689819,"96":0.06984128057956696,"97":-0.5848349928855896,"98":-0.7005341649055481,"99":0.0095234839245677}},"cellActivationBias":{"rows":10,"columns":1,"weights":{"0":0.041600409895181656,"1":0.061056118458509445,"2":0.020853325724601746,"3":0.01128917746245861,"4":0.09218018501996994,"5":0.10987954586744308,"6":-0.04985782876610756,"7":0.02059575356543064,"8":-0.06925084441900253,"9":-0.025244416669011116}}}],"outputConnector":{"rows":1,"columns":10,"weights":{"0":-0.5964652299880981,"1":-0.3325696885585785,"2":-0.2538890838623047,"3":-0.2546360194683075,"4":-0.5802971124649048,"5":0.35789754986763,"6":0.5563615560531616,"7":-0.2502865493297577,"8":-0.2739923894405365,"9":0.584521472454071}},"output":{"rows":1,"columns":1,"weights":{"0":0.016926199197769165}}}