Web.VueData.Learned.Deaths = {"type":"LSTMTimeStep","options":{"inputSize":1,"hiddenLayers":[10],"outputSize":1,"learningRate":0.01,"decayRate":0.999,"smoothEps":1e-8,"regc":0.000001,"clipval":5},"hiddenLayers":[{"inputMatrix":{"rows":10,"columns":1,"weights":{"0":-0.392640084028244,"1":-0.33136507868766785,"2":0.7090232968330383,"3":-0.614804744720459,"4":0.3550376892089844,"5":-0.5829277038574219,"6":0.2435789406299591,"7":0.8226537704467773,"8":-0.43235063552856445,"9":0.164018914103508}},"inputHidden":{"rows":10,"columns":10,"weights":{"0":-0.15692749619483948,"1":0.019569778814911842,"2":-0.690395712852478,"3":0.03765794634819031,"4":-0.5084667205810547,"5":0.022237978875637054,"6":-0.5165903568267822,"7":0.5114890933036804,"8":0.07031319290399551,"9":0.5780968070030212,"10":-0.10399926453828812,"11":0.16082683205604553,"12":-0.6264294385910034,"13":0.0009133340790867805,"14":-0.43043071031570435,"15":-0.134184330701828,"16":-0.5503039956092834,"17":0.5466405749320984,"18":0.17672380805015564,"19":0.6275596022605896,"20":-0.5945034623146057,"21":0.5168085694313049,"22":0.022484255954623222,"23":0.7023289203643799,"24":0.0652264952659607,"25":0.633036732673645,"26":0.0973779559135437,"27":-0.10968504846096039,"28":0.6516695618629456,"29":-0.1772875189781189,"30":0.6124669909477234,"31":-0.6690657138824463,"32":0.11745413392782211,"33":-0.32324036955833435,"34":0.22582343220710754,"35":-0.2655838429927826,"36":-0.22926045954227448,"37":-0.1874082237482071,"38":-0.6430305242538452,"39":0.2634442448616028,"40":-0.36742451786994934,"41":0.38795554637908936,"42":0.04593157768249512,"43":0.6503385901451111,"44":-0.03365778923034668,"45":0.5932938456535339,"46":0.09983717650175095,"47":0.009009742178022861,"48":0.49719035625457764,"49":-0.10714028775691986,"50":0.7163030505180359,"51":-0.7265645265579224,"52":0.2072673887014389,"53":-0.19121642410755157,"54":0.2541612684726715,"55":-0.234109565615654,"56":-0.2949167490005493,"57":-0.20503342151641846,"58":-0.7360270023345947,"59":0.2735055685043335,"60":0.13306774199008942,"61":-0.09907564520835876,"62":0.8102951645851135,"63":0.16015423834323883,"64":0.8391129374504089,"65":0.13385720551013947,"66":0.33150678873062134,"67":-0.9200628399848938,"68":-0.06765544414520264,"69":-0.44281187653541565,"70":-0.46816006302833557,"71":0.5111061334609985,"72":0.06668344885110855,"73":0.5371425151824951,"74":0.06589903682470322,"75":0.5155144929885864,"76":0.05259951576590538,"77":-0.015535159967839718,"78":0.5311421751976013,"79":-0.17809739708900452,"80":-0.021721942350268364,"81":0.1465449184179306,"82":-0.6591407656669617,"83":-0.03158169239759445,"84":-0.5347746014595032,"85":0.020148873329162598,"86":-0.5563690066337585,"87":0.663336992263794,"88":0.10085149109363556,"89":0.5537363886833191,"90":0.0860186517238617,"91":-0.21012485027313232,"92":0.9087616801261902,"93":0.2940068542957306,"94":0.7583099007606506,"95":0.286651611328125,"96":0.336446076631546,"97":-0.7847440242767334,"98":-0.17633624374866486,"99":-0.30621254444122314}},"inputBias":{"rows":10,"columns":1,"weights":{"0":-0.2018212527036667,"1":-0.2094534933567047,"2":-0.36699241399765015,"3":-0.12527866661548615,"4":-0.3137478530406952,"5":-0.08441474288702011,"6":-0.2734217047691345,"7":-0.3172861635684967,"8":-0.211456760764122,"9":-0.27198296785354614}},"forgetMatrix":{"rows":10,"columns":1,"weights":{"0":-0.19743438065052032,"1":-0.0409788154065609,"2":0.43803712725639343,"3":-0.4879947602748871,"4":0.14481234550476074,"5":-0.5040839314460754,"6":-0.07429145276546478,"7":0.4976832866668701,"8":-0.26729336380958557,"9":-0.026702849194407463}},"forgetHidden":{"rows":10,"columns":10,"weights":{"0":-0.1828315258026123,"1":0.2527470886707306,"2":-0.5271577835083008,"3":0.1848878711462021,"4":-0.3938111960887909,"5":0.1540122777223587,"6":-0.37915417551994324,"7":0.424776166677475,"8":0.27299726009368896,"9":0.37213730812072754,"10":-0.196235790848732,"11":0.17725248634815216,"12":-0.40518346428871155,"13":0.16502700746059418,"14":-0.42798274755477905,"15":0.10936132818460464,"16":-0.5371831059455872,"17":0.35131314396858215,"18":0.229303777217865,"19":0.44682547450065613,"20":-0.4679071009159088,"21":0.37681806087493896,"22":-0.015031259506940842,"23":0.6587123274803162,"24":-0.06263144314289093,"25":0.5675212144851685,"26":0.06197557970881462,"27":0.0607452392578125,"28":0.41249653697013855,"29":0.05479029193520546,"30":0.5595723390579224,"31":-0.6038529276847839,"32":0.4346005916595459,"33":-0.11209648102521896,"34":0.4384578764438629,"35":-0.03965093195438385,"36":-0.1883702427148819,"37":-0.3971295654773712,"38":-0.6462624669075012,"39":0.13747911155223846,"40":-0.313206285238266,"41":0.372786283493042,"42":-0.01734229363501072,"43":0.4408054053783417,"44":-0.18164987862110138,"45":0.42646893858909607,"46":-0.07661737501621246,"47":0.05606478452682495,"48":0.4005023241043091,"49":0.1136377826333046,"50":0.6359027028083801,"51":-0.5829856395721436,"52":0.33550915122032166,"53":-0.17524577677249908,"54":0.35708871483802795,"55":-0.08585984259843826,"56":-0.09558744728565216,"57":-0.363648384809494,"58":-0.696132242679596,"59":0.08938562870025635,"60":0.3826225996017456,"61":-0.3475099503993988,"62":0.7985607385635376,"63":0.13926897943019867,"64":0.7529066801071167,"65":0.12250567227602005,"66":0.21498526632785797,"67":-0.7276182174682617,"68":-0.38467636704444885,"69":-0.3349311053752899,"70":-0.33077743649482727,"71":0.3847956359386444,"72":-0.0699092447757721,"73":0.507485568523407,"74":-0.15271297097206116,"75":0.5158613324165344,"76":-0.12675122916698456,"77":-0.031811438500881195,"78":0.3565641939640045,"79":-0.06985440850257874,"80":-0.13576830923557281,"81":0.2027054727077484,"82":-0.4062672257423401,"83":0.16754786670207977,"84":-0.3433074355125427,"85":0.17912040650844574,"86":-0.45248663425445557,"87":0.3680589199066162,"88":0.2770582437515259,"89":0.43261468410491943,"90":0.32437750697135925,"91":-0.4409672021865845,"92":0.8805373311042786,"93":0.166472926735878,"94":0.6996744275093079,"95":0.16882091760635376,"96":0.2956388592720032,"97":-0.8275229334831238,"98":-0.30292975902557373,"99":-0.20131786167621613}},"forgetBias":{"rows":10,"columns":1,"weights":{"0":0,"1":0,"2":0,"3":0,"4":0,"5":0,"6":0,"7":0,"8":0,"9":0}},"outputMatrix":{"rows":10,"columns":1,"weights":{"0":-0.43526744842529297,"1":-0.4284002482891083,"2":0.6464120745658875,"3":-0.45862048864364624,"4":0.2533833384513855,"5":-0.5022500157356262,"6":0.1667415201663971,"7":0.7297340631484985,"8":-0.47088363766670227,"9":0.13482113182544708}},"outputHidden":{"rows":10,"columns":10,"weights":{"0":-0.10826969891786575,"1":0.11238814890384674,"2":-0.7365884184837341,"3":-0.015304171480238438,"4":-0.5205055475234985,"5":-0.03574439883232117,"6":-0.5671749114990234,"7":0.52442467212677,"8":0.12089508771896362,"9":0.6276856660842896,"10":-0.07353568077087402,"11":0.02376343309879303,"12":-0.7291149497032166,"13":-0.010636061429977417,"14":-0.5712437033653259,"15":-0.07523521780967712,"16":-0.6664661169052124,"17":0.6075598001480103,"18":0.15416625142097473,"19":0.578802227973938,"20":-0.601631224155426,"21":0.6496118903160095,"22":0.1669238656759262,"23":0.6444129943847656,"24":0.10779323428869247,"25":0.6755266785621643,"26":0.06856486946344376,"27":-0.05416388437151909,"28":0.5124897360801697,"29":-0.19070817530155182,"30":0.599784791469574,"31":-0.6240234971046448,"32":0.21872881054878235,"33":-0.19767919182777405,"34":0.207474023103714,"35":-0.29314976930618286,"36":-0.2225109040737152,"37":-0.1425907462835312,"38":-0.6581814289093018,"39":0.26480337977409363,"40":-0.4781077206134796,"41":0.3538544476032257,"42":0.0783921331167221,"43":0.7052096128463745,"44":0.03244861587882042,"45":0.5969927310943604,"46":0.07209860533475876,"47":-0.0339348241686821,"48":0.4508036971092224,"49":-0.05125453695654869,"50":0.7430798411369324,"51":-0.7620307803153992,"52":0.22438591718673706,"53":-0.3179541528224945,"54":0.24450218677520752,"55":-0.2962167263031006,"56":-0.34890419244766235,"57":-0.18332026898860931,"58":-0.7650266289710999,"59":0.25962594151496887,"60":0.14694979786872864,"61":-0.09869380295276642,"62":1.0766913890838623,"63":0.17417378723621368,"64":1.002393126487732,"65":0.1801432967185974,"66":0.41618627309799194,"67":-1.058960199356079,"68":-0.1909349411725998,"69":-0.416803777217865,"70":-0.5459921360015869,"71":0.48539409041404724,"72":0.1549675017595291,"73":0.5358216762542725,"74":0.084600530564785,"75":0.5607922673225403,"76":0.20850206911563873,"77":-0.04432806372642517,"78":0.6099218130111694,"79":-0.16456034779548645,"80":0.0006710105808451772,"81":0.03178464248776436,"82":-0.6830699443817139,"83":-0.032882288098335266,"84":-0.49349072575569153,"85":-0.07730774581432343,"86":-0.6468287706375122,"87":0.5816728472709656,"88":0.09666293114423752,"89":0.5272926688194275,"90":0.20688284933567047,"91":-0.1719076931476593,"92":1.0710591077804565,"93":0.1956442892551422,"94":0.897533118724823,"95":0.3186893165111542,"96":0.48325854539871216,"97":-0.9677207469940186,"98":-0.2436918020248413,"99":-0.4043048620223999}},"outputBias":{"rows":10,"columns":1,"weights":{"0":-0.20026765763759613,"1":-0.20794709026813507,"2":-0.3675602078437805,"3":-0.12271998822689056,"4":-0.3140249252319336,"5":-0.0808807983994484,"6":-0.2745218276977539,"7":-0.31780895590782166,"8":-0.2102537304162979,"9":-0.2722984850406647}},"cellActivationMatrix":{"rows":10,"columns":1,"weights":{"0":-0.8697966933250427,"1":1.021870493888855,"2":1.6351113319396973,"3":0.49357718229293823,"4":1.5257704257965088,"5":0.44894614815711975,"6":0.879806637763977,"7":-2.1195199489593506,"8":0.8204835057258606,"9":-0.650924026966095}},"cellActivationHidden":{"rows":10,"columns":10,"weights":{"0":-0.02272898331284523,"1":0.04625140503048897,"2":-0.1384964883327484,"3":1.0769637823104858,"4":-0.1528964340686798,"5":0.9879785776138306,"6":-0.7671834230422974,"7":0.1890566051006317,"8":0.11112401634454727,"9":0.669118344783783,"10":0.10425199568271637,"11":0.011353706941008568,"12":0.1035604253411293,"13":-1.059931993484497,"14":0.13629484176635742,"15":-1.1081254482269287,"16":0.767067551612854,"17":-0.26458117365837097,"18":0.07057276368141174,"19":-0.7063934803009033,"20":-0.16069519519805908,"21":0.26215875148773193,"22":0.10528221726417542,"23":0.10099880397319794,"24":0.08747407048940659,"25":0.015720179304480553,"26":-0.4100271463394165,"27":-0.18214184045791626,"28":0.16095052659511566,"29":0.46496880054473877,"30":-0.8790159225463867,"31":0.8333760499954224,"32":-0.6801708340644836,"33":-0.4085647463798523,"34":-0.7394480109214783,"35":-0.28825801610946655,"36":0.44931015372276306,"37":0.6845234036445618,"38":0.7725866436958313,"39":-0.4173954427242279,"40":-0.1620887666940689,"41":0.29900845885276794,"42":-0.07752880454063416,"43":0.20208695530891418,"44":-0.051058344542980194,"45":0.22059594094753265,"46":-0.4801528751850128,"47":-0.08223676681518555,"48":0.19590367376804352,"49":0.5761770606040955,"50":-0.8085480332374573,"51":0.6493490934371948,"52":-0.6219401955604553,"53":-0.41179776191711426,"54":-0.6757799983024597,"55":-0.3760041296482086,"56":0.4436383843421936,"57":0.529370903968811,"58":0.8275657892227173,"59":-0.4246618151664734,"60":0.39843836426734924,"61":-0.4012596011161804,"62":0.706495463848114,"63":-0.029573146253824234,"64":0.8303241729736328,"65":-0.17431020736694336,"66":-0.22242437303066254,"67":-1.1235142946243286,"68":-0.4306769371032715,"69":0.17355598509311676,"70":0.3711514174938202,"71":-0.43735283613204956,"72":0.11951001733541489,"73":0.2358708381652832,"74":0.020329337567090988,"75":0.3566555976867676,"76":0.36757892370224,"77":0.16667146980762482,"78":-0.3816289007663727,"79":-0.5017312169075012,"80":0.005423759110271931,"81":-0.049917709082365036,"82":0.10232584178447723,"83":-0.951587975025177,"84":0.003363937372341752,"85":-1.0092194080352783,"86":0.7412143349647522,"87":-0.275503009557724,"88":-0.06857579946517944,"89":-0.7283415794372559,"90":-0.7354103922843933,"91":0.6807552576065063,"92":-0.9051209688186646,"93":-0.06769602000713348,"94":-0.8107516169548035,"95":0.018934359773993492,"96":0.26501697301864624,"97":1.1319807767868042,"98":0.673190712928772,"99":-0.2937515377998352}},"cellActivationBias":{"rows":10,"columns":1,"weights":{"0":0.04313883185386658,"1":-0.01535690575838089,"2":-0.18484561145305634,"3":-0.15773643553256989,"4":-0.0915786400437355,"5":-0.17354080080986023,"6":-0.16803815960884094,"7":0.1477670520544052,"8":-0.02554316259920597,"9":0.13540281355381012}}}],"outputConnector":{"rows":1,"columns":10,"weights":{"0":-0.44734540581703186,"1":0.5589185953140259,"2":0.23209220170974731,"3":-0.18561452627182007,"4":0.3331645131111145,"5":-0.19157567620277405,"6":0.37991467118263245,"7":-0.6000375747680664,"8":0.46029797196388245,"9":-0.34367960691452026}},"output":{"rows":1,"columns":1,"weights":{"0":0.04226415231823921}}}