Web.VueData.Learned.Recovered = {"type":"LSTMTimeStep","options":{"inputSize":1,"hiddenLayers":[10],"outputSize":1,"learningRate":0.01,"decayRate":0.999,"smoothEps":1e-8,"regc":0.000001,"clipval":5},"hiddenLayers":[{"inputMatrix":{"rows":10,"columns":1,"weights":{"0":-0.47583329677581787,"1":0.5536348819732666,"2":0.5095170140266418,"3":-0.38116756081581116,"4":0.15026476979255676,"5":-0.505218505859375,"6":0.13755546510219574,"7":-0.5449226498603821,"8":0.01882908120751381,"9":0.32863566279411316}},"inputHidden":{"rows":10,"columns":10,"weights":{"0":-0.33803510665893555,"1":-0.15573476254940033,"2":0.11749056726694107,"3":-0.2701427638530731,"4":0.1267746239900589,"5":-0.27737683057785034,"6":0.19602634012699127,"7":-0.29692190885543823,"8":0.24484002590179443,"9":-0.8078752160072327,"10":0.8124244809150696,"11":-0.04849257692694664,"12":0.1407916247844696,"13":0.7982205748558044,"14":0.015649165958166122,"15":0.7468635439872742,"16":-0.032719727605581284,"17":0.6504154205322266,"18":0.01406150870025158,"19":0.8594591617584229,"20":0.6187881827354431,"21":0.012083961628377438,"22":0.06330041587352753,"23":0.7707111835479736,"24":-0.08264374732971191,"25":0.5872026681900024,"26":-0.027307609096169472,"27":0.7155641913414001,"28":0.018106475472450256,"29":0.8122468590736389,"30":-0.2457263469696045,"31":-0.07088051736354828,"32":0.1093827486038208,"33":-0.21112819015979767,"34":0.13985635340213776,"35":-0.18427377939224243,"36":0.19163300096988678,"37":-0.23784716427326202,"38":0.1000998392701149,"39":-0.9082027077674866,"40":0.3632373511791229,"41":0.051046185195446014,"42":-0.05503329634666443,"43":0.3610941767692566,"44":-0.01277451403439045,"45":0.4047010838985443,"46":0.0035837041214108467,"47":0.29883530735969543,"48":-0.06495754420757294,"49":0.6682960391044617,"50":-0.28128719329833984,"51":-0.17422457039356232,"52":0.055570945143699646,"53":-0.28589627146720886,"54":0.28344419598579407,"55":-0.20299114286899567,"56":0.1509210467338562,"57":-0.2888964116573334,"58":0.28705894947052,"59":-0.8559194803237915,"60":0.44509777426719666,"61":0.03607051447033882,"62":0.0472714938223362,"63":0.4283500015735626,"64":-0.08519510924816132,"65":0.41620001196861267,"66":-0.07536274194717407,"67":0.46859210729599,"68":0.00545452581718564,"69":0.6950361132621765,"70":-0.30385708808898926,"71":-0.19932813942432404,"72":0.15401168167591095,"73":-0.19818806648254395,"74":0.2163819521665573,"75":-0.2292487770318985,"76":0.16405832767486572,"77":-0.3123459219932556,"78":0.11672670394182205,"79":-0.8711719512939453,"80":0.38507992029190063,"81":0.06697729974985123,"82":-0.05285298079252243,"83":0.452018141746521,"84":0.025250591337680817,"85":0.3667016923427582,"86":0.016841255128383636,"87":0.4151405096054077,"88":0.0018678050255402923,"89":0.7072234153747559,"90":-0.27827852964401245,"91":0.02496020682156086,"92":-0.3613712191581726,"93":-0.16549313068389893,"94":-1.143420696258545,"95":-0.1963929533958435,"96":-0.8544130325317383,"97":-0.20980346202850342,"98":-0.9788864850997925,"99":0.7292554378509521}},"inputBias":{"rows":10,"columns":1,"weights":{"0":-0.07796220481395721,"1":-0.4503467082977295,"2":-0.308633416891098,"3":-0.07336118072271347,"4":-0.36294278502464294,"5":-0.058203019201755524,"6":-0.3400771915912628,"7":-0.089105024933815,"8":-0.3417232036590576,"9":-0.33832722902297974}},"forgetMatrix":{"rows":10,"columns":1,"weights":{"0":-0.331387996673584,"1":0.4099949598312378,"2":0.2462645024061203,"3":-0.4079298973083496,"4":-0.039777107536792755,"5":-0.39003390073776245,"6":-0.007348884362727404,"7":-0.3938721716403961,"8":-0.05703418701887131,"9":0.7945840358734131}},"forgetHidden":{"rows":10,"columns":10,"weights":{"0":-0.16286373138427734,"1":-0.5309984683990479,"2":0.4181132912635803,"3":-0.12307035177946091,"4":0.47853201627731323,"5":-0.08779486268758774,"6":0.3811853229999542,"7":-0.1628493368625641,"8":0.4874677360057831,"9":-0.7543647885322571,"10":0.41634759306907654,"11":-0.04655665531754494,"12":0.03265666216611862,"13":0.5018030405044556,"14":-0.1687985509634018,"15":0.44603464007377625,"16":-0.07167923450469971,"17":0.50240558385849,"18":-0.13550780713558197,"19":1.0760778188705444,"20":0.47821980714797974,"21":-0.03434588760137558,"22":0.06667082756757736,"23":0.5354728102684021,"24":-0.13508695363998413,"25":0.43301671743392944,"26":-0.06708429008722305,"27":0.471727579832077,"28":-0.14041517674922943,"29":0.6943325400352478,"30":-0.14766234159469604,"31":-0.45602360367774963,"32":0.36036595702171326,"33":-0.10485215485095978,"34":0.4137246906757355,"35":-0.10825780779123306,"36":0.45994728803634644,"37":-0.1970628798007965,"38":0.33490198850631714,"39":-0.6733769774436951,"40":0.39608487486839294,"41":0.2087850719690323,"42":-0.08429566025733948,"43":0.5123212337493896,"44":-0.03019316866993904,"45":0.37752556800842285,"46":-0.07356236129999161,"47":0.44179287552833557,"48":-0.07494065165519714,"49":0.5510367751121521,"50":-0.08624449372291565,"51":-0.5131008625030518,"52":0.3885066509246826,"53":-0.1384311467409134,"54":0.4477960467338562,"55":-0.09545649588108063,"56":0.4572805166244507,"57":-0.10205285996198654,"58":0.40605074167251587,"59":-0.6696935296058655,"60":0.46297791600227356,"61":0.2336924523115158,"62":-0.12997139990329742,"63":0.5336416363716125,"64":-0.06799601018428802,"65":0.41355961561203003,"66":-0.12346871197223663,"67":0.41218167543411255,"68":-0.14646057784557343,"69":0.3980059325695038,"70":-0.030962402001023293,"71":-0.4403859078884125,"72":0.48978811502456665,"73":-0.14269450306892395,"74":0.4177200198173523,"75":-0.11844843626022339,"76":0.4597611129283905,"77":-0.15288764238357544,"78":0.4291549623012543,"79":-0.6756929159164429,"80":0.4219158887863159,"81":0.17711661756038666,"82":-0.14193642139434814,"83":0.49754130840301514,"84":-0.0906350240111351,"85":0.4212416410446167,"86":-0.14258359372615814,"87":0.48853209614753723,"88":-0.06562606245279312,"89":0.5071688294410706,"90":-0.11607304215431213,"91":-0.2650422155857086,"92":-0.17034195363521576,"93":-0.11466740071773529,"94":-0.9247538447380066,"95":-0.03835687413811684,"96":-0.6177384853363037,"97":-0.05777822807431221,"98":-0.842625617980957,"99":0.9445789456367493}},"forgetBias":{"rows":10,"columns":1,"weights":{"0":0,"1":0,"2":0,"3":0,"4":0,"5":0,"6":0,"7":0,"8":0,"9":0}},"outputMatrix":{"rows":10,"columns":1,"weights":{"0":-0.37477606534957886,"1":0.5364617109298706,"2":0.4810926616191864,"3":-0.35246390104293823,"4":0.034946080297231674,"5":-0.4649007022380829,"6":0.048430945724248886,"7":-0.4065712094306946,"8":-0.009853237308561802,"9":0.49811848998069763}},"outputHidden":{"rows":10,"columns":10,"weights":{"0":-0.2066890299320221,"1":-0.17839127779006958,"2":0.15573520958423615,"3":-0.3061522841453552,"4":0.23562972247600555,"5":-0.2472923845052719,"6":0.22273677587509155,"7":-0.3237576186656952,"8":0.237055242061615,"9":-0.8536850214004517,"10":0.651005208492279,"11":-0.23647868633270264,"12":0.12370608747005463,"13":0.8108230829238892,"14":-0.06434402614831924,"15":0.7407494783401489,"16":0.043619658797979355,"17":0.6612049341201782,"18":0.0044402205385267735,"19":1.2108649015426636,"20":0.575083315372467,"21":-0.033770304173231125,"22":0.19144155085086823,"23":0.7898464798927307,"24":-0.035897668451070786,"25":0.63387531042099,"26":0.032582733780145645,"27":0.6115712523460388,"28":-0.008024020120501518,"29":0.8935245871543884,"30":-0.3370351195335388,"31":-0.1986497938632965,"32":0.21561534702777863,"33":-0.32233792543411255,"34":0.295928031206131,"35":-0.2436370998620987,"36":0.22678913176059723,"37":-0.24222998321056366,"38":0.1556224822998047,"39":-0.9470686316490173,"40":0.40705522894859314,"41":0.011928134597837925,"42":-0.013840927742421627,"43":0.375670850276947,"44":-0.014272816479206085,"45":0.34544965624809265,"46":-0.028651336207985878,"47":0.4089469015598297,"48":-0.0893058180809021,"49":0.7413637638092041,"50":-0.2264072597026825,"51":-0.18040373921394348,"52":0.16364066302776337,"53":-0.21402642130851746,"54":0.33959251642227173,"55":-0.28502118587493896,"56":0.26085156202316284,"57":-0.32521146535873413,"58":0.29674169421195984,"59":-0.928985059261322,"60":0.542368471622467,"61":0.05822739750146866,"62":0.062140561640262604,"63":0.4067634046077728,"64":-0.07786602526903152,"65":0.48845353722572327,"66":-0.05748819559812546,"67":0.5060251355171204,"68":0.03113228641450405,"69":0.6800400614738464,"70":-0.267366886138916,"71":-0.16786298155784607,"72":0.20369787514209747,"73":-0.23426997661590576,"74":0.2275044471025467,"75":-0.2074323147535324,"76":0.14420630037784576,"77":-0.2123018205165863,"78":0.29463982582092285,"79":-0.8912975192070007,"80":0.5009950399398804,"81":0.0618312731385231,"82":-0.018145250156521797,"83":0.4174957871437073,"84":0.02457069605588913,"85":0.5099530220031738,"86":-0.03076261654496193,"87":0.49978208541870117,"88":-0.09171954542398453,"89":0.7013390064239502,"90":-0.1871318519115448,"91":-0.3077143430709839,"92":-0.045749519020318985,"93":-0.2533389627933502,"94":-1.2083444595336914,"95":-0.2582297623157501,"96":-0.828997790813446,"97":-0.22964876890182495,"98":-1.0830563306808472,"99":0.8327110409736633}},"outputBias":{"rows":10,"columns":1,"weights":{"0":-0.07371899485588074,"1":-0.4508429765701294,"2":-0.30918237566947937,"3":-0.06954709440469742,"4":-0.36285361647605896,"5":-0.05322374030947685,"6":-0.34024229645729065,"7":-0.08434118330478668,"8":-0.341739296913147,"9":-0.3356534540653229}},"cellActivationMatrix":{"rows":10,"columns":1,"weights":{"0":0.2210211455821991,"1":-1.4035258293151855,"2":1.4866838455200195,"3":0.27736371755599976,"4":0.38318508863449097,"5":0.25052058696746826,"6":0.6922438144683838,"7":0.23919975757598877,"8":0.4843069911003113,"9":2.03692889213562}},"cellActivationHidden":{"rows":10,"columns":10,"weights":{"0":-0.18041542172431946,"1":0.12359205633401871,"2":-0.2720591425895691,"3":-0.25819316506385803,"4":-0.9077168107032776,"5":-0.2681357264518738,"6":-0.8776334524154663,"7":-0.3170180022716522,"8":-0.8642734289169312,"9":0.9631356596946716,"10":-0.212937131524086,"11":-0.4612696170806885,"12":0.3743581771850586,"13":0.11802075058221817,"14":0.0975719764828682,"15":-0.3514377474784851,"16":0.12322250008583069,"17":-0.20525938272476196,"18":-0.021060066297650337,"19":-0.8280245065689087,"20":0.3140977919101715,"21":0.13558122515678406,"22":-0.05549880117177963,"23":-0.021344460546970367,"24":-0.13717155158519745,"25":0.475619912147522,"26":-0.06327538937330246,"27":0.3544172942638397,"28":-0.048412248492240906,"29":1.0119866132736206,"30":-0.23861387372016907,"31":0.07354879379272461,"32":-0.274630069732666,"33":-0.19015511870384216,"34":-0.8902990818023682,"35":-0.25741684436798096,"36":-0.8114977478981018,"37":-0.2947750687599182,"38":-0.7707425355911255,"39":0.952083170413971,"40":0.599556028842926,"41":0.5682897567749023,"42":-0.42205893993377686,"43":0.7382227182388306,"44":-0.04147709161043167,"45":0.6322095990180969,"46":0.002145240316167474,"47":0.7491930723190308,"48":0.046976238489151,"49":-0.13342252373695374,"50":-0.37623581290245056,"51":0.08207470178604126,"52":-0.15518835186958313,"53":-0.23028211295604706,"54":-0.8149690628051758,"55":-0.31429195404052734,"56":-0.8126312494277954,"57":-0.2540157735347748,"58":-0.7535843849182129,"59":0.9117141366004944,"60":0.6619829535484314,"61":0.5403195023536682,"62":-0.39309173822402954,"63":0.6181957721710205,"64":0.057735539972782135,"65":0.7024170756340027,"66":0.053955964744091034,"67":0.6063252091407776,"68":0.07815305888652802,"69":0.16575275361537933,"70":-0.34001410007476807,"71":0.12479767948389053,"72":-0.2449418008327484,"73":-0.17016582190990448,"74":-0.8838843107223511,"75":-0.28368961811065674,"76":-0.8082579970359802,"77":-0.35524678230285645,"78":-0.8389959335327148,"79":0.9194441437721252,"80":0.717647135257721,"81":0.5734540224075317,"82":-0.577116072177887,"83":0.670545756816864,"84":0.0792245864868164,"85":0.6786485314369202,"86":-0.043880730867385864,"87":0.7303502559661865,"88":0.05857086181640625,"89":0.037359029054641724,"90":-0.9975305199623108,"91":-0.8036496043205261,"92":0.18664459884166718,"93":-1.2294553518295288,"94":-0.3246224820613861,"95":-0.9486293792724609,"96":-0.28203433752059937,"97":-1.0817222595214844,"98":-0.1599363386631012,"99":0.9476193189620972}},"cellActivationBias":{"rows":10,"columns":1,"weights":{"0":-0.031018510460853577,"1":0.1327512413263321,"2":-0.25852030515670776,"3":-0.12644007802009583,"4":-0.04113692045211792,"5":0.015731384977698326,"6":-0.09963413327932358,"7":-0.01852477341890335,"8":-0.0481809638440609,"9":-0.08814575523138046}}}],"outputConnector":{"rows":1,"columns":10,"weights":{"0":0.23247934877872467,"1":-0.795909583568573,"2":0.46408891677856445,"3":0.17457468807697296,"4":0.17544367909431458,"5":0.2573168873786926,"6":0.22962382435798645,"7":0.23376519978046417,"8":0.20531366765499115,"9":0.6136639714241028}},"output":{"rows":1,"columns":1,"weights":{"0":0.05991900712251663}}}